<?xml version="1.0"?>
<opencv_storage>
<!-- Created using Computer Vision System Toolbox(tm) for MATLAB(R) -->
<!-- Version 9.1.0.441655 (R2016b) -->
<!-- Compatible with OpenCV 2.4 -->
<cascade>
  <stageType>BOOST</stageType>
  <featureType>HOG</featureType>
  <height>43</height>
  <width>32</width>
  <stageParams>
    <boostType>GAB</boostType>
    <minHitRate>9.9500000476837158e-01</minHitRate>
    <maxFalseAlarm>1.0000000149011612e-01</maxFalseAlarm>
    <weightTrimRate>9.4999999999999996e-01</weightTrimRate>
    <maxDepth>1</maxDepth>
    <maxWeakCount>100</maxWeakCount></stageParams>
  <featureParams>
    <maxCatCount>0</maxCatCount>
    <featSize>36</featSize></featureParams>
  <stageNum>4</stageNum>
  <stages>
    <!-- stage 0 -->
    <_>
      <maxWeakCount>4</maxWeakCount>
      <stageThreshold>-3.2476517558097839e-01</stageThreshold>
      <weakClassifiers>
        <_>
          <internalNodes>
            0 -1 12 9.7835678607225418e-03</internalNodes>
          <leafValues>
            7.3863637447357178e-01 -9.3418258428573608e-01</leafValues></_>
        <_>
          <internalNodes>
            0 -1 22 1.0517369024455547e-02</internalNodes>
          <leafValues>
            7.4325704574584961e-01 -8.3008253574371338e-01</leafValues></_>
        <_>
          <internalNodes>
            0 -1 18 4.0515687316656113e-02</internalNodes>
          <leafValues>
            -8.7967342138290405e-01 6.9875961542129517e-01</leafValues></_>
        <_>
          <internalNodes>
            0 -1 1 3.3833002671599388e-03</internalNodes>
          <leafValues>
            7.4583375453948975e-01 -7.9294753074645996e-01</leafValues></_></weakClassifiers></_>
    <!-- stage 1 -->
    <_>
      <maxWeakCount>6</maxWeakCount>
      <stageThreshold>-4.6702715754508972e-01</stageThreshold>
      <weakClassifiers>
        <_>
          <internalNodes>
            0 -1 11 3.7431694567203522e-02</internalNodes>
          <leafValues>
            -7.9843443632125854e-01 7.2767859697341919e-01</leafValues></_>
        <_>
          <internalNodes>
            0 -1 17 3.6613255739212036e-02</internalNodes>
          <leafValues>
            -7.9958242177963257e-01 6.5544247627258301e-01</leafValues></_>
        <_>
          <internalNodes>
            0 -1 21 4.4023223221302032e-02</internalNodes>
          <leafValues>
            -6.6072422266006470e-01 6.2935292720794678e-01</leafValues></_>
        <_>
          <internalNodes>
            0 -1 19 1.1826003901660442e-02</internalNodes>
          <leafValues>
            -8.9456242322921753e-01 3.7974068522453308e-01</leafValues></_>
        <_>
          <internalNodes>
            0 -1 5 6.9535453803837299e-03</internalNodes>
          <leafValues>
            4.6239468455314636e-01 -7.6146578788757324e-01</leafValues></_>
        <_>
          <internalNodes>
            0 -1 4 8.3667024970054626e-02</internalNodes>
          <leafValues>
            -4.8585638403892517e-01 7.1841412782669067e-01</leafValues></_></weakClassifiers></_>
    <!-- stage 2 -->
    <_>
      <maxWeakCount>8</maxWeakCount>
      <stageThreshold>-3.5519334673881531e-01</stageThreshold>
      <weakClassifiers>
        <_>
          <internalNodes>
            0 -1 18 3.1558189541101456e-02</internalNodes>
          <leafValues>
            -9.4685316085815430e-01 2.4768212437629700e-01</leafValues></_>
        <_>
          <internalNodes>
            0 -1 16 8.3064123988151550e-02</internalNodes>
          <leafValues>
            -5.5867362022399902e-01 7.3556870222091675e-01</leafValues></_>
        <_>
          <internalNodes>
            0 -1 6 1.2793561816215515e-01</internalNodes>
          <leafValues>
            -3.6034038662910461e-01 8.6515015363693237e-01</leafValues></_>
        <_>
          <internalNodes>
            0 -1 9 2.0883124321699142e-02</internalNodes>
          <leafValues>
            -7.6962614059448242e-01 4.5192101597785950e-01</leafValues></_>
        <_>
          <internalNodes>
            0 -1 14 1.8493829295039177e-02</internalNodes>
          <leafValues>
            3.8621211051940918e-01 -8.2232141494750977e-01</leafValues></_>
        <_>
          <internalNodes>
            0 -1 20 5.3403727710247040e-02</internalNodes>
          <leafValues>
            -5.3548806905746460e-01 5.0046014785766602e-01</leafValues></_>
        <_>
          <internalNodes>
            0 -1 8 1.2996664643287659e-01</internalNodes>
          <leafValues>
            -2.8244554996490479e-01 8.7121409177780151e-01</leafValues></_>
        <_>
          <internalNodes>
            0 -1 15 5.4765031673014164e-03</internalNodes>
          <leafValues>
            4.6852433681488037e-01 -5.4255133867263794e-01</leafValues></_></weakClassifiers></_>
    <!-- stage 3 -->
    <_>
      <maxWeakCount>8</maxWeakCount>
      <stageThreshold>1.8193242431152612e-04</stageThreshold>
      <weakClassifiers>
        <_>
          <internalNodes>
            0 -1 2 4.7076591290533543e-03</internalNodes>
          <leafValues>
            -8.3333331346511841e-01 6.9034606218338013e-01</leafValues></_>
        <_>
          <internalNodes>
            0 -1 13 9.8768416792154312e-03</internalNodes>
          <leafValues>
            -9.2031461000442505e-01 3.5301774740219116e-01</leafValues></_>
        <_>
          <internalNodes>
            0 -1 18 2.6776678860187531e-02</internalNodes>
          <leafValues>
            -9.4854044914245605e-01 2.1903271973133087e-01</leafValues></_>
        <_>
          <internalNodes>
            0 -1 7 2.0971547812223434e-02</internalNodes>
          <leafValues>
            2.9662248492240906e-01 -7.7191710472106934e-01</leafValues></_>
        <_>
          <internalNodes>
            0 -1 10 3.6677956581115723e-02</internalNodes>
          <leafValues>
            -4.6788525581359863e-01 5.5840176343917847e-01</leafValues></_>
        <_>
          <internalNodes>
            0 -1 3 3.5340749309398234e-04</internalNodes>
          <leafValues>
            -8.8125616312026978e-01 2.3131527006626129e-01</leafValues></_>
        <_>
          <internalNodes>
            0 -1 0 5.1572690717875957e-03</internalNodes>
          <leafValues>
            3.5081860423088074e-01 -5.8442020416259766e-01</leafValues></_>
        <_>
          <internalNodes>
            0 -1 18 5.8720972388982773e-02</internalNodes>
          <leafValues>
            -5.0551259517669678e-01 5.3778702020645142e-01</leafValues></_></weakClassifiers></_></stages>
  <features>
    <_>
      <rect>
        0 0 8 8 2</rect></_>
    <_>
      <rect>
        0 0 8 8 3</rect></_>
    <_>
      <rect>
        4 24 8 8 21</rect></_>
    <_>
      <rect>
        12 16 8 8 5</rect></_>
    <_>
      <rect>
        16 4 8 8 16</rect></_>
    <_>
      <rect>
        16 4 8 8 24</rect></_>
    <_>
      <rect>
        16 8 8 8 16</rect></_>
    <_>
      <rect>
        8 0 8 16 19</rect></_>
    <_>
      <rect>
        12 0 8 16 15</rect></_>
    <_>
      <rect>
        12 8 8 16 31</rect></_>
    <_>
      <rect>
        16 4 8 16 28</rect></_>
    <_>
      <rect>
        0 0 16 8 15</rect></_>
    <_>
      <rect>
        0 0 16 8 22</rect></_>
    <_>
      <rect>
        0 4 16 8 15</rect></_>
    <_>
      <rect>
        0 8 16 8 13</rect></_>
    <_>
      <rect>
        0 8 16 8 22</rect></_>
    <_>
      <rect>
        0 16 16 8 0</rect></_>
    <_>
      <rect>
        0 16 16 8 27</rect></_>
    <_>
      <rect>
        0 0 16 16 1</rect></_>
    <_>
      <rect>
        0 0 16 16 15</rect></_>
    <_>
      <rect>
        0 4 16 16 27</rect></_>
    <_>
      <rect>
        0 8 16 16 0</rect></_>
    <_>
      <rect>
        0 8 16 16 13</rect></_></features></cascade>
</opencv_storage>
